\data\
ngram 1=342
ngram 2=342
ngram 3=342

\1-grams:
[SS, null, null]
[Japanese, null, null]
[air-conditioner, null, null]
[maker, null, null]
[Daikin, null, null]
[Industries, null, null]
[Ltd., null, null]
[was, null, null]
[fined, null, null]
[two, null, null]
[million, null, null]
[yen, null, null]
[-LRB-, null, null]
[$, null, null]
[14,000, null, null]
[-RRB-, null, null]
[for, null, null]
[exporting, null, null]
[to, null, null]
[the, null, null]
[Soviet, null, null]
[Union, null, null]
[a, null, null]
[chemical, null, null]
[solution, null, null]
[that, null, null]
[could, null, null]
[be, null, null]
[used, null, null]
[in, null, null]
[missile-guidance, null, null]
[systems, null, null]
[SS, null, null]
[Last, null, null]
[summer, null, null]
[,, null, null]
[in, null, null]
[response, null, null]
[to, null, null]
[congressional, null, null]
[criticism, null, null]
[,, null, null]
[the, null, null]
[State, null, null]
[Department, null, null]
[and, null, null]
[the, null, null]
[CIA, null, null]
[said, null, null]
[they, null, null]
[had, null, null]
[resumed, null, null]
[military, null, null]
[aid, null, null]
[to, null, null]
[the, null, null]
[resistance, null, null]
[months, null, null]
[after, null, null]
[it, null, null]
[was, null, null]
[cut, null, null]
[off, null, null]
[;, null, null]
[but, null, null]
[it, null, null]
[is, null, null]
[not, null, null]
[clear, null, null]
[how, null, null]
[much, null, null]
[is, null, null]
[being, null, null]
[sent, null, null]
[or, null, null]
[when, null, null]
[it, null, null]
[will, null, null]
[arrive, null, null]
[SS, null, null]
[The, null, null]
[derivative, null, null]
[mortgage-backed, null, null]
[market, null, null]
[revived, null, null]
[after, null, null]
[a, null, null]
[brief, null, null]
[hiatus, null, null]
[as, null, null]
[two, null, null]
[new, null, null]
[Remics, null, null]
[totaling, null, null]
[$, null, null]
[850, null, null]
[million, null, null]
[were, null, null]
[offered, null, null]
[and, null, null]
[talk, null, null]
[circulated, null, null]
[about, null, null]
[two, null, null]
[more, null, null]
[issues, null, null]
[that, null, null]
[could, null, null]
[be, null, null]
[priced, null, null]
[today, null, null]
[SS, null, null]
[In, null, null]
[a, null, null]
[move, null, null]
[that, null, null]
[could, null, null]
[pose, null, null]
[a, null, null]
[new, null, null]
[competitive, null, null]
[challenge, null, null]
[to, null, null]
[Time, null, null]
[Warner, null, null]
[Inc., null, null]
['s, null, null]
[powerful, null, null]
[Home, null, null]
[Box, null, null]
[Office, null, null]
[,, null, null]
[cable, null, null]
[giant, null, null]
[Tele-Communications, null, null]
[Inc., null, null]
[agreed, null, null]
[to, null, null]
[buy, null, null]
[half, null, null]
[of, null, null]
[Showtime, null, null]
[Networks, null, null]
[Inc., null, null]
[from, null, null]
[Viacom, null, null]
[Inc., null, null]
[for, null, null]
[$, null, null]
[225, null, null]
[million, null, null]
[SS, null, null]
[This, null, null]
[portends, null, null]
[consequences, null, null]
[from, null, null]
[what, null, null]
[we, null, null]
[have, null, null]
[already, null, null]
[done, null, null]
[that, null, null]
[will, null, null]
[be, null, null]
[very, null, null]
[destabilizing, null, null]
[to, null, null]
[social, null, null]
[and, null, null]
[economic, null, null]
[systems, null, null]
[SS, null, null]
[Oncor, null, null]
[Inc., null, null]
[,, null, null]
[Gaithersburg, null, null]
[,, null, null]
[Md, null, null]
[., null, null]
[,, null, null]
[said, null, null]
[it, null, null]
[received, null, null]
[approval, null, null]
[from, null, null]
[the, null, null]
[U.S., null, null]
[Food, null, null]
[and, null, null]
[Drug, null, null]
[Administration, null, null]
[to, null, null]
[market, null, null]
[a, null, null]
[genetic, null, null]
[test, null, null]
[that, null, null]
[will, null, null]
[assist, null, null]
[in, null, null]
[diagnosis, null, null]
[and, null, null]
[treatment, null, null]
[of, null, null]
[leukemia, null, null]
[and, null, null]
[lymph, null, null]
[cancer, null, null]
[SS, null, null]
[When, null, null]
[a, null, null]
[court, null, null]
[decides, null, null]
[that, null, null]
[a, null, null]
[particular, null, null]
[actor, null, null]
['s, null, null]
[conduct, null, null]
[was, null, null]
[culpable, null, null]
[and, null, null]
[so, null, null]
[extends, null, null]
[the, null, null]
[definition, null, null]
[of, null, null]
[insider, null, null]
[trading, null, null]
[to, null, null]
[reach, null, null]
[this, null, null]
[conduct, null, null]
[,, null, null]
[it, null, null]
[does, null, null]
[not, null, null]
[see, null, null]
[the, null, null]
[potentially, null, null]
[enormous, null, null]
[number, null, null]
[of, null, null]
[other, null, null]
[cases, null, null]
[that, null, null]
[will, null, null]
[be, null, null]
[covered, null, null]
[by, null, null]
[the, null, null]
[expanded, null, null]
[rule, null, null]
[SS, null, null]
[The, null, null]
[oil, null, null]
[and, null, null]
[auto, null, null]
[industries, null, null]
[,, null, null]
[united, null, null]
[in, null, null]
[their, null, null]
[dislike, null, null]
[of, null, null]
[President, null, null]
[Bush, null, null]
['s, null, null]
[proposal, null, null]
[for, null, null]
[cars, null, null]
[that, null, null]
[run, null, null]
[on, null, null]
[alternative, null, null]
[fuels, null, null]
[,, null, null]
[announced, null, null]
[a, null, null]
[joint, null, null]
[research, null, null]
[program, null, null]
[that, null, null]
[could, null, null]
[turn, null, null]
[up, null, null]
[a, null, null]
[cleaner-burning, null, null]
[gasoline, null, null]
[SS, null, null]
[Harold, null, null]
[Jones, null, null]
[,, null, null]
[Lincoln, null, null]
['s, null, null]
[chief, null, null]
[retail, null, null]
[banking, null, null]
[officer, null, null]
[,, null, null]
[said, null, null]
[there, null, null]
[has, null, null]
[n't, null, null]
[yet, null, null]
[been, null, null]
[``, null, null]
[a, null, null]
[discernible, null, null]
[response, null, null]
[,, null, null]
['', null, null]
[although, null, null]
[the, null, null]
[ad, null, null]
[included, null, null]
[a, null, null]
[coupon, null, null]
[that, null, null]
[could, null, null]
[arrive, null, null]
[later, null, null]
[in, null, null]
[the, null, null]
[week, null, null]
[SS, null, null]
[That, null, null]
[will, null, null]
[bring, null, null]
[the, null, null]
[total, null, null]
[for, null, null]
[the, null, null]
[year, null, null]
[to, null, null]
[10, null, null]
[,, null, null]
[from, null, null]
[five, null, null]
[during, null, null]
[fiscal, null, null]
[1989, null, null]
\2-grams:
\3-grams:
